%YAML:1.0
---
opencv_ml_nbayes:
   format: 3
   var_count: 5
   var_all: 5
   cls_labels: !!opencv-matrix
      rows: 4
      cols: 1
      dt: i
      data: [ -2, -1, 1, 2 ]
   count:
      - !!opencv-matrix
         rows: 1
         cols: 5
         dt: i
         data: [ 78, 78, 78, 78, 78 ]
      - !!opencv-matrix
         rows: 1
         cols: 5
         dt: i
         data: [ 467, 467, 467, 467, 467 ]
      - !!opencv-matrix
         rows: 1
         cols: 5
         dt: i
         data: [ 39, 39, 39, 39, 39 ]
      - !!opencv-matrix
         rows: 1
         cols: 5
         dt: i
         data: [ 109, 109, 109, 109, 109 ]
   sum:
      - !!opencv-matrix
         rows: 1
         cols: 5
         dt: d
         data: [ 3.1020482635498047e+002, 2.8543565922975540e+002,
             3.4421137332916260e+002, 5.1491134595870972e+002,
             3.1740651535987854e+002 ]
      - !!opencv-matrix
         rows: 1
         cols: 5
         dt: d
         data: [ 2.1433378672599792e+003, 1.9745852659344673e+003,
             2.0747451155185699e+003, 2.2344951553344727e+003,
             2.0542692644596100e+003 ]
      - !!opencv-matrix
         rows: 1
         cols: 5
         dt: d
         data: [ 2.2221010589599609e+002, 2.1733623647689819e+002,
             2.1051982736587524e+002, 1.5479424095153809e+002,
             2.4213293838500977e+002 ]
      - !!opencv-matrix
         rows: 1
         cols: 5
         dt: d
         data: [ 5.9330294513702393e+002, 5.0739682722091675e+002,
             4.6835179185867310e+002, 4.0867900848388672e+002,
             5.9836545944213867e+002 ]
   productsum:
      - !!opencv-matrix
         rows: 5
         cols: 5
         dt: d
         data: [ 2.2038863602631504e+003, 1.3716835702704025e+003,
             1.2739835405110907e+003, 2.0277060923260763e+003,
             1.5417593336819641e+003, 1.3716835702704025e+003,
             2.0149685857956651e+003, 9.5503100358987933e+002,
             1.5188459080253247e+003, 1.6955812268154664e+003,
             1.2739835405110907e+003, 9.5503100358987933e+002,
             2.6891286424122113e+003, 2.3773938588230831e+003,
             1.4275239546101911e+003, 2.0277060923260763e+003,
             1.5188459080253247e+003, 2.3773938588230831e+003,
             4.5026286867931512e+003, 1.2835506683222893e+003,
             1.5417593336819641e+003, 1.6955812268154664e+003,
             1.4275239546101911e+003, 1.2835506683222893e+003,
             2.3188047150485304e+003 ]
      - !!opencv-matrix
         rows: 5
         cols: 5
         dt: d
         data: [ 1.7077155620605521e+004, 1.2442177610733574e+004,
             1.0399227036610424e+004, 1.0411386379361209e+004,
             1.3035593650692477e+004, 1.2442177610733574e+004,
             1.5476227089753307e+004, 8.9105437752310390e+003,
             8.2248711098198310e+003, 1.3060978778249038e+004,
             1.0399227036610424e+004, 8.9105437752310390e+003,
             1.6639867005668904e+004, 1.0575537421730976e+004,
             1.1094149735826537e+004, 1.0411386379361209e+004,
             8.2248711098198310e+003, 1.0575537421730976e+004,
             1.8085698392886927e+004, 6.1138360319887215e+003,
             1.3035593650692477e+004, 1.3060978778249038e+004,
             1.1094149735826537e+004, 6.1138360319887215e+003,
             1.6081210680864584e+004 ]
      - !!opencv-matrix
         rows: 5
         cols: 5
         dt: d
         data: [ 1.8875837359547641e+003, 1.5907165860280329e+003,
             1.2139484876439310e+003, 7.3577287836999312e+002,
             1.7233940574693552e+003, 1.5907165860280329e+003,
             1.8588348579307242e+003, 1.2119137353852500e+003,
             6.2565415985370601e+002, 1.6350125036856539e+003,
             1.2139484876439310e+003, 1.2119137353852500e+003,
             1.8285532527492262e+003, 9.4717302749270812e+002,
             1.3571554484106045e+003, 7.3577287836999312e+002,
             6.2565415985370601e+002, 9.4717302749270812e+002,
             1.1827324077853250e+003, 5.2562070254729906e+002,
             1.7233940574693552e+003, 1.6350125036856539e+003,
             1.3571554484106045e+003, 5.2562070254729906e+002,
             2.1324083660493125e+003 ]
      - !!opencv-matrix
         rows: 5
         cols: 5
         dt: d
         data: [ 5.0368653084093503e+003, 3.8439567364830655e+003,
             2.9476460567826052e+003, 2.0394476374149663e+003,
             4.4876539427742173e+003, 3.8439567364830655e+003,
             4.0894521159967339e+003, 2.2036464605507026e+003,
             1.3857475215741558e+003, 4.0663493787418902e+003,
             2.9476460567826052e+003, 2.2036464605507026e+003,
             3.7789501438744728e+003, 2.1260368255166468e+003,
             2.9797261317129737e+003, 2.0394476374149663e+003,
             1.3857475215741558e+003, 2.1260368255166468e+003,
             2.9483336612847152e+003, 1.5095116378349380e+003,
             4.4876539427742173e+003, 4.0663493787418902e+003,
             2.9797261317129737e+003, 1.5095116378349380e+003,
             5.0463666250913566e+003 ]
   avg:
      - !!opencv-matrix
         rows: 1
         cols: 5
         dt: d
         data: [ 3.9769849532689805e+000, 3.6594315285866079e+000,
             4.4129663247328539e+000, 6.6014275122911501e+000,
             4.0693142994856224e+000 ]
      - !!opencv-matrix
         rows: 1
         cols: 5
         dt: d
         data: [ 4.5895885808564865e+000, 4.2282339741637411e+000,
             4.4427090268063596e+000, 4.7847861998596848e+000,
             4.3988635213267884e+000 ]
      - !!opencv-matrix
         rows: 1
         cols: 5
         dt: d
         data: [ 5.6976950229742584e+000, 5.5727240122281589e+000,
             5.3979442914326983e+000, 3.9690831013214893e+000,
             6.2085368816669169e+000 ]
      - !!opencv-matrix
         rows: 1
         cols: 5
         dt: d
         data: [ 5.4431462856607702e+000, 4.6550167634946487e+000,
             4.2968054298960832e+000, 3.7493487016870342e+000,
             5.4895913710287951e+000 ]
   inv_eigen_values:
      - !!opencv-matrix
         rows: 5
         cols: 1
         dt: d
         data: [ 3.3282322653741023e-002, 6.1555322974459120e-002,
             7.9932945149197410e-002, 1.3934854492928439e-001,
             4.7793901247710419e-001 ]
      - !!opencv-matrix
         rows: 5
         cols: 1
         dt: d
         data: [ 2.9099794964818574e-002, 5.5336605299737517e-002,
             6.6410055729143880e-002, 1.3236020795412373e-001,
             3.7106691371619505e-001 ]
      - !!opencv-matrix
         rows: 5
         cols: 1
         dt: d
         data: [ 2.4900557624307523e-002, 5.1575610156964394e-002,
             7.7311921898344668e-002, 1.2176731510266320e-001,
             4.1135804338705295e-001 ]
      - !!opencv-matrix
         rows: 5
         cols: 1
         dt: d
         data: [ 2.4267263256348939e-002, 5.1717659210841045e-002,
             1.0085651508746453e-001, 1.8369977256010908e-001,
             3.8342973488548748e-001 ]
   cov_rotate_mats:
      - !!opencv-matrix
         rows: 5
         cols: 5
         dt: d
         data: [ 2.3076182836915815e-001, 4.7654986504443914e-001,
             -1.8418581364611933e-001, -5.6799658286586852e-001,
             6.0258167296895415e-001, 2.0168030169510592e-001,
             2.3725737345787926e-001, -8.6834453520080346e-001,
             2.7224485528968451e-001, -2.7366859813146033e-001,
             -8.6853160099462923e-001, -7.8421181412826141e-002,
             -3.2246231649943541e-001, -3.6499178705904406e-001,
             -4.7979435144509842e-002, -3.3910348818109115e-001,
             8.0587856434043015e-001, 2.8077249464675785e-001,
             3.9251336688694849e-001, -5.1658754388115749e-002,
             -1.9166563816453175e-001, -2.4702028805023074e-001,
             -1.7099185631506550e-001, 5.6211820181836503e-001,
             7.4634454020712149e-001 ]
      - !!opencv-matrix
         rows: 5
         cols: 5
         dt: d
         data: [ 4.6614342487512267e-001, 5.2552939292151468e-001,
             1.7250142025943699e-001, -3.1746228134654531e-001,
             6.1318033607737232e-001, 3.4679356412082896e-001,
             1.9276149282958718e-002, 6.0594681065198175e-001,
             7.1089625384569355e-001, -8.2568958344188051e-002,
             3.9862836126604351e-001, 3.3934525674131172e-001,
             -7.3090643181017290e-001, 3.9818951016787135e-001,
             -1.8210197212637086e-001, -6.6457268929079760e-001,
             7.0616124323511964e-001, 9.0912725183012466e-002,
             2.2659650447738314e-001, -8.2667865495846954e-003,
             -2.4876314351850515e-001, -3.3110177064487151e-001,
             -2.4613489595643975e-001, 4.2888617877160429e-001,
             7.6417457073225514e-001 ]
      - !!opencv-matrix
         rows: 5
         cols: 5
         dt: d
         data: [ 4.8093572594870204e-001, 4.9801998735634551e-001,
             4.8361459809265275e-003, -4.5184665352811970e-001,
             5.6257278025804891e-001, 1.3981514263336176e-001,
             1.3628912031232013e-001, 9.3134299096920214e-001,
             3.0736869825058188e-001, -1.3107567241841752e-003,
             5.2527622721697820e-001, 4.2679887109879550e-001,
             -3.1777481908013178e-001, 5.3300357381336905e-001,
             -3.9604793069811262e-001, -5.8343900146598549e-001,
             7.2361973560315263e-001, 4.7993193551102153e-002,
             -2.0218484577376586e-001, -3.0461672857248367e-001,
             -3.6446724144383524e-001, 1.6618835624825454e-001,
             -1.7115099355816696e-001, 6.1350433044339381e-001,
             6.5868416869777557e-001 ]
      - !!opencv-matrix
         rows: 5
         cols: 5
         dt: d
         data: [ 5.3242008713738931e-001, 5.3705778690252770e-001,
             1.3897778891447335e-001, -2.4936942883244578e-001,
             5.8872561222712039e-001, 1.9354728980632355e-001,
             -1.4978363688370555e-001, 8.1680201540611674e-001,
             5.2234035105220866e-001, -9.9666454576621665e-003,
             4.3809354767231717e-001, 2.3948591792039012e-001,
             -4.9629973705996483e-001, 6.7841484821991282e-001,
             -2.1014376820327949e-001, -6.3862233640037080e-001,
             7.1747591668143529e-001, 1.2347118449756865e-001,
             2.4928782055317303e-001, -5.1918713602785592e-004,
             -2.8160939678863084e-001, -3.4206519809710506e-001,
             -2.2794973000626065e-001, 3.7760339228486389e-001,
             7.8047559001942379e-001 ]
   c: !!opencv-matrix
      rows: 1
      cols: 4
      dt: d
      data: [ 1.1426164114116716e+001, 1.2156852689114402e+001,
          1.2211413177705808e+001, 1.1627690848365658e+001 ]
